{
  "layers": [
    {
      "0": {},
      "1": {},
      "2": {},
      "3": {},
      "4": {},
      "5": {},
      "6": {},
      "7": {},
      "8": {},
      "9": {},
      "10": {},
      "11": {},
      "12": {},
      "13": {},
      "14": {},
      "15": {},
      "16": {},
      "17": {},
      "18": {},
      "19": {},
      "20": {},
      "21": {},
      "22": {},
      "23": {},
      "24": {},
      "25": {},
      "26": {},
      "27": {},
      "28": {},
      "29": {},
      "30": {},
      "31": {},
      "32": {},
      "33": {},
      "34": {},
      "35": {},
      "36": {},
      "37": {},
      "38": {},
      "39": {},
      "40": {},
      "41": {},
      "42": {},
      "43": {},
      "44": {},
      "45": {},
      "46": {},
      "47": {},
      "48": {},
      "49": {},
      "50": {},
      "51": {},
      "52": {},
      "53": {},
      "54": {},
      "55": {},
      "56": {},
      "57": {},
      "58": {},
      "59": {},
      "60": {},
      "61": {},
      "62": {},
      "63": {},
      "64": {},
      "65": {},
      "66": {},
      "67": {},
      "68": {},
      "69": {},
      "70": {},
      "71": {},
      "72": {},
      "73": {},
      "74": {},
      "75": {},
      "76": {},
      "77": {},
      "78": {},
      "79": {},
      "80": {},
      "81": {},
      "82": {},
      "83": {},
      "84": {},
      "85": {},
      "86": {},
      "87": {},
      "88": {},
      "89": {},
      "90": {},
      "91": {},
      "92": {},
      "93": {},
      "94": {},
      "95": {},
      "96": {},
      "97": {},
      "98": {},
      "99": {},
      "100": {},
      "101": {},
      "102": {},
      "103": {},
      "104": {},
      "105": {},
      "106": {},
      "107": {},
      "108": {},
      "109": {},
      "110": {},
      "111": {},
      "112": {},
      "113": {},
      "114": {},
      "115": {},
      "116": {},
      "117": {},
      "118": {},
      "119": {},
      "120": {},
      "121": {},
      "122": {},
      "123": {},
      "124": {},
      "125": {},
      "126": {},
      "127": {},
      "128": {},
      "129": {},
      "130": {},
      "131": {},
      "132": {},
      "133": {},
      "134": {},
      "135": {},
      "136": {},
      "137": {},
      "138": {},
      "139": {},
      "140": {},
      "141": {},
      "142": {},
      "143": {},
      "144": {},
      "145": {},
      "146": {},
      "147": {},
      "148": {},
      "149": {},
      "150": {},
      "151": {},
      "152": {},
      "153": {},
      "154": {},
      "155": {},
      "156": {},
      "157": {},
      "158": {},
      "159": {},
      "160": {},
      "161": {},
      "162": {},
      "163": {},
      "164": {},
      "165": {},
      "166": {},
      "167": {},
      "168": {},
      "169": {},
      "170": {},
      "171": {},
      "172": {},
      "173": {},
      "174": {},
      "175": {},
      "176": {},
      "177": {},
      "178": {},
      "179": {},
      "180": {},
      "181": {},
      "182": {},
      "183": {},
      "184": {},
      "185": {},
      "186": {},
      "187": {},
      "188": {},
      "189": {},
      "190": {},
      "191": {},
      "192": {},
      "193": {},
      "194": {},
      "195": {},
      "196": {},
      "197": {},
      "198": {},
      "199": {},
      "200": {},
      "201": {},
      "202": {},
      "203": {},
      "204": {},
      "205": {},
      "206": {},
      "207": {},
      "208": {},
      "209": {},
      "210": {},
      "211": {},
      "212": {},
      "213": {},
      "214": {},
      "215": {},
      "216": {},
      "217": {},
      "218": {},
      "219": {},
      "220": {},
      "221": {},
      "222": {},
      "223": {},
      "224": {},
      "225": {},
      "226": {},
      "227": {},
      "228": {},
      "229": {},
      "230": {},
      "231": {},
      "232": {},
      "233": {},
      "234": {},
      "235": {},
      "236": {},
      "237": {},
      "238": {},
      "239": {},
      "240": {},
      "241": {},
      "242": {},
      "243": {},
      "244": {},
      "245": {},
      "246": {},
      "247": {},
      "248": {},
      "249": {},
      "250": {},
      "251": {},
      "252": {},
      "253": {},
      "254": {},
      "255": {},
      "256": {},
      "257": {},
      "258": {},
      "259": {},
      "260": {},
      "261": {},
      "262": {},
      "263": {},
      "264": {},
      "265": {},
      "266": {},
      "267": {},
      "268": {},
      "269": {},
      "270": {},
      "271": {},
      "272": {},
      "273": {},
      "274": {},
      "275": {},
      "276": {},
      "277": {},
      "278": {},
      "279": {},
      "280": {},
      "281": {},
      "282": {},
      "283": {},
      "284": {},
      "285": {},
      "286": {},
      "287": {},
      "288": {},
      "289": {},
      "290": {},
      "291": {},
      "292": {},
      "293": {},
      "294": {},
      "295": {},
      "296": {},
      "297": {},
      "298": {},
      "299": {},
      "300": {},
      "301": {},
      "302": {},
      "303": {},
      "304": {},
      "305": {},
      "306": {},
      "307": {},
      "308": {},
      "309": {},
      "310": {},
      "311": {},
      "312": {},
      "313": {},
      "314": {},
      "315": {},
      "316": {},
      "317": {},
      "318": {},
      "319": {},
      "320": {},
      "321": {},
      "322": {},
      "323": {},
      "324": {},
      "325": {},
      "326": {},
      "327": {},
      "328": {},
      "329": {},
      "330": {},
      "331": {},
      "332": {},
      "333": {},
      "334": {},
      "335": {},
      "336": {},
      "337": {},
      "338": {},
      "339": {},
      "340": {},
      "341": {},
      "342": {},
      "343": {},
      "344": {},
      "345": {},
      "346": {},
      "347": {},
      "348": {},
      "349": {},
      "350": {},
      "351": {},
      "352": {},
      "353": {},
      "354": {},
      "355": {},
      "356": {},
      "357": {},
      "358": {},
      "359": {},
      "360": {},
      "361": {},
      "362": {},
      "363": {},
      "364": {},
      "365": {},
      "366": {},
      "367": {},
      "368": {},
      "369": {},
      "370": {},
      "371": {},
      "372": {},
      "373": {},
      "374": {},
      "375": {},
      "376": {},
      "377": {},
      "378": {},
      "379": {},
      "380": {},
      "381": {},
      "382": {},
      "383": {},
      "384": {},
      "385": {},
      "386": {},
      "387": {},
      "388": {},
      "389": {},
      "390": {},
      "391": {},
      "392": {},
      "393": {},
      "394": {},
      "395": {},
      "396": {},
      "397": {},
      "398": {},
      "399": {}
    },
    {
      "0": {
        "bias": 0.29444260782225146,
        "weights": {
          "0": 0.22249383787520935,
          "1": 0.1988437983646235,
          "2": 0.09240520569580098,
          "3": 0.22153946910863978,
          "4": 0.13836589895433307,
          "5": -0.10774113806755327,
          "6": 0.09805202561808284,
          "7": 0.0020834078546385143,
          "8": 0.15686517077362258,
          "9": 0.04759108196032677,
          "10": 0.04932521623289693,
          "11": -0.01118236334015703,
          "12": -0.04501034032540577,
          "13": 0.05830729635601748,
          "14": -0.1146885823214974,
          "15": 0.056879761451604456,
          "16": 0.11351888104975005,
          "17": 0.17645596987154094,
          "18": -0.18183739908417207,
          "19": -0.10367228688629473,
          "20": -0.18308067324002247,
          "21": -0.18399047408927438,
          "22": -0.21668709317301862,
          "23": -0.20040135900364026,
          "24": -0.2736927633323301,
          "25": -0.2542587001011248,
          "26": -0.1567521553506897,
          "27": -0.1946732966314993,
          "28": -0.1126530175204032,
          "29": -0.020893239314624678,
          "30": -0.012701503869209535,
          "31": -0.00025301347192872604,
          "32": -0.020072150684730186,
          "33": 0.0987012438440533,
          "34": 0.01879904195060173,
          "35": 0.14714394193798272,
          "36": 0.11547561144374509,
          "37": 0.11429184075055213,
          "38": 0.03424990441511943,
          "39": 0.06760121925998301,
          "40": 0.04800932148566027,
          "41": -0.024918064458276233,
          "42": -0.015668516877960607,
          "43": 0.07560824211795203,
          "44": 0.12667253379478063,
          "45": -0.04492682351770276,
          "46": 0.2452249969726163,
          "47": 0.02139695744375114,
          "48": 0.12293065925166978,
          "49": 0.04004963958658325,
          "50": 0.19498546277170462,
          "51": 0.3046812934087872,
          "52": 0.11493990192417854,
          "53": -0.006782768589797504,
          "54": 0.006487005659000795,
          "55": 0.11584723760284707,
          "56": 0.12321234084889872,
          "57": 0.12329975818628792,
          "58": 0.2569171928278406,
          "59": 0.033747913050989925,
          "60": 0.06796443379815899,
          "61": 0.32885593271306035,
          "62": 0.08027274182417758,
          "63": 0.11961882157407694,
          "64": 0.06070820006625107,
          "65": 0.13423527621630446,
          "66": 0.2639288063130396,
          "67": 0.03596138007317618,
          "68": 0.1764296240390201,
          "69": 0.17296680867870706,
          "70": 0.2056751428103876,
          "71": 0.12258344679660178,
          "72": 0.22450678350051084,
          "73": -0.08900379130689307,
          "74": -0.11506752586647327,
          "75": -0.09114447627410233,
          "76": 0.16024361443416008,
          "77": 0.09929211423150289,
          "78": -0.02772862790566101,
          "79": -0.10306199589432606,
          "80": 0.1765249602682823,
          "81": -0.1290034618387113,
          "82": -0.1396578210781061,
          "83": 0.022810457750987143,
          "84": 0.16142552139067698,
          "85": 0.06590568124065906,
          "86": -0.03055444987326897,
          "87": 0.02640301047811235,
          "88": -0.020440803718627564,
          "89": 0.09633361492375472,
          "90": 0.20835759600817866,
          "91": 0.07517299008192482,
          "92": -0.00263796952933502,
          "93": 0.10303914134954313,
          "94": -0.1298506953921554,
          "95": -0.22195440527097862,
          "96": 0.1230810305611968,
          "97": -0.25950804733151434,
          "98": -0.11681358176974758,
          "99": -0.1499442875373238,
          "100": -0.17213514661225188,
          "101": -0.005146220256861031,
          "102": 0.13854773290057767,
          "103": -0.2040173566198241,
          "104": 0.019266647874577186,
          "105": -0.07383713968488037,
          "106": 0.17685354038542822,
          "107": -0.05012181276105911,
          "108": -0.07250051494623092,
          "109": -0.030893831756868773,
          "110": -0.12138700331699835,
          "111": -0.08317331100457097,
          "112": -0.06484631696262595,
          "113": -0.20427868639047334,
          "114": 0.007324746053123396,
          "115": -0.2935851828830957,
          "116": -0.09537887399608015,
          "117": -0.2006418840906829,
          "118": -0.09928212902713904,
          "119": -0.0910709080230959,
          "120": -0.07720873197558975,
          "121": -0.1428284250675567,
          "122": 0.01888570349501571,
          "123": -0.026148777209980982,
          "124": -0.17112098894637093,
          "125": -0.03656010462014117,
          "126": -0.03226489536327933,
          "127": -0.057798052374981576,
          "128": -0.22116987792259046,
          "129": -0.3413170008421658,
          "130": -0.11089374201112101,
          "131": -0.23358971524444483,
          "132": -0.08117021415119163,
          "133": 0.0025210755427979336,
          "134": -0.08689937461641385,
          "135": -0.2703119898076564,
          "136": -0.017179963478506997,
          "137": 0.014018329242367953,
          "138": -0.10659993576507744,
          "139": -0.13957551642031812,
          "140": -0.20091465359662505,
          "141": -0.2729459451736275,
          "142": -0.3289524025318285,
          "143": -0.0988219692918702,
          "144": 0.0397158133672002,
          "145": -0.2830203546826994,
          "146": -0.1435318928694162,
          "147": -0.03886546479697175,
          "148": -0.13880128370532024,
          "149": -0.05765810215928152,
          "150": -0.13313679095218744,
          "151": -0.008423213137958765,
          "152": -0.24608516492272794,
          "153": -0.18765687104865775,
          "154": 0.08528744750982778,
          "155": -0.21192208997784545,
          "156": -0.174084778392519,
          "157": -0.21832728264978665,
          "158": 0.011733278801952208,
          "159": -0.11667165409710373,
          "160": -0.10789172618751544,
          "161": -0.1496350931735561,
          "162": -0.12350835653769497,
          "163": 0.055179411764772014,
          "164": 0.07467469071401278,
          "165": 0.1000168612515444,
          "166": -0.20271968062459214,
          "167": 0.11111146833883878,
          "168": -0.0930773228694892,
          "169": 0.04415884889870821,
          "170": -0.07354553702052208,
          "171": -0.07427977901068732,
          "172": 0.02565198667660884,
          "173": -0.19935882047179565,
          "174": -0.01816515360773196,
          "175": -0.07893987661397714,
          "176": 0.09707751972473322,
          "177": -0.14100302092361314,
          "178": 0.1972372552641993,
          "179": 0.2556081155760605,
          "180": -0.045483963745324846,
          "181": 0.13740043365269422,
          "182": -0.1013907037265998,
          "183": 0.051904178329679994,
          "184": 0.09227010444622365,
          "185": -0.05346663910201198,
          "186": 0.09420753510109926,
          "187": 0.22131834140503623,
          "188": 0.13419461083926876,
          "189": 0.018480502763108336,
          "190": 0.03080539656645983,
          "191": -0.0378464269448174,
          "192": -0.012705673443657974,
          "193": 0.33410493239778905,
          "194": 0.2780614382457396,
          "195": 0.13342216265968768,
          "196": 0.10703041207653044,
          "197": 0.1478283584488333,
          "198": 0.03270320912360641,
          "199": 0.198975388271034,
          "200": 0.1810253440449472,
          "201": 0.3103990109272974,
          "202": 0.4233709149862904,
          "203": 0.14262268324337835,
          "204": 0.2999345496288997,
          "205": 0.1497331282623216,
          "206": 0.30106024467324943,
          "207": 0.0479048704597501,
          "208": 0.14580994406936315,
          "209": 0.31350714135832974,
          "210": 0.13493672257168637,
          "211": 0.12524069695672094,
          "212": 0.047609176817193205,
          "213": -0.1271880653058969,
          "214": -0.11414438223323853,
          "215": 0.1708340611108835,
          "216": -0.02938529326587375,
          "217": 0.18685167486600784,
          "218": 0.044267967280813954,
          "219": -0.18227317589088693,
          "220": -0.1724284959770525,
          "221": 0.09286149116634396,
          "222": 0.11028127558907111,
          "223": -0.15197562910700346,
          "224": 0.17470809613427418,
          "225": -0.0005635714056945009,
          "226": -0.08768191648924524,
          "227": 0.10603149406869104,
          "228": -0.07199552325075274,
          "229": -0.16891203592433504,
          "230": -0.007549997004283215,
          "231": -0.1581617377421034,
          "232": 0.11868747466784474,
          "233": 0.16650818176382615,
          "234": 0.04750161143095605,
          "235": -0.16311708249450657,
          "236": 0.05845083257749242,
          "237": -0.0697167358713758,
          "238": 0.07722552311717722,
          "239": 0.03137667453803193,
          "240": 0.19876933087373408,
          "241": -0.10099428736923025,
          "242": -0.1069363341719391,
          "243": 0.11712032741830085,
          "244": -0.12607925730722083,
          "245": 0.07375499887897573,
          "246": -0.14101672990729977,
          "247": 0.1495188512269171,
          "248": -0.17831157110903062,
          "249": -0.17732839529130304,
          "250": -0.15209218483557377,
          "251": -0.11551365788270372,
          "252": -0.057864304806595004,
          "253": 0.000690037200200279,
          "254": 0.11148539384007038,
          "255": -0.11236198358413037,
          "256": 0.06063989645270591,
          "257": -0.1734871825717498,
          "258": 0.045481970586392924,
          "259": -0.03252787932956054,
          "260": -0.03559581887704083,
          "261": 0.10441389871583742,
          "262": 0.17981230081931923,
          "263": 0.12305549382541407,
          "264": 0.16002834013268386,
          "265": -0.11228217373989902,
          "266": 0.029684788258970626,
          "267": -0.061522252636652175,
          "268": -0.1800628911141471,
          "269": 0.013025006813330145,
          "270": -0.047411231545263346,
          "271": -0.22437960161526332,
          "272": -0.12582472507347592,
          "273": -0.0277577580082961,
          "274": -0.19644395375105678,
          "275": -0.2742433908562488,
          "276": 0.0042669499308181525,
          "277": 0.04267862559702861,
          "278": -0.12968781494779347,
          "279": 0.08023559058744999,
          "280": -0.2262950610082667,
          "281": 0.07690086870161462,
          "282": -0.01930658146820074,
          "283": 0.09144137063285074,
          "284": -0.0824715611179296,
          "285": -0.18839345690268852,
          "286": -0.06563066047629242,
          "287": -0.117186599889497,
          "288": 0.014269783084563286,
          "289": -0.1852641309534581,
          "290": -0.06605602317301813,
          "291": -0.19132752825176785,
          "292": -0.02768217932321082,
          "293": -0.028996028503342458,
          "294": -0.23010813234212824,
          "295": 0.04669457983279503,
          "296": -0.2085645797277368,
          "297": -0.08027583437916028,
          "298": 0.05791867075785995,
          "299": -0.21681773987875652,
          "300": 0.057355753970589035,
          "301": -0.01790803783721798,
          "302": 0.12831735291309285,
          "303": 0.08401977935548186,
          "304": -0.09775251504504509,
          "305": -0.21210191928100294,
          "306": -0.11221798674031337,
          "307": -0.22414384472586893,
          "308": 0.15831061103830704,
          "309": 0.027421509024548364,
          "310": 0.03156307382871163,
          "311": 0.06292767546837015,
          "312": 0.02270033218719225,
          "313": -0.048397669916018286,
          "314": -0.18770560792874752,
          "315": -0.11551767638739861,
          "316": -0.2182632316749044,
          "317": -0.21965010158947615,
          "318": -0.2561084633719553,
          "319": -0.03607424535368654,
          "320": -0.15767636642427418,
          "321": -0.24893174556039602,
          "322": -0.3411970372913894,
          "323": -0.23817653464244265,
          "324": -0.13011854877173273,
          "325": -0.4219917620057456,
          "326": -0.08950271150300054,
          "327": -0.21832135416515433,
          "328": -0.24627387963087016,
          "329": -0.1209306720465521,
          "330": -0.43618077011252426,
          "331": -0.148052485931136,
          "332": -0.3457559657143854,
          "333": -0.43869818077784756,
          "334": -0.31600282737032587,
          "335": -0.11323247058106191,
          "336": -0.1906174268264979,
          "337": -0.3307935472162346,
          "338": -0.128766712637897,
          "339": -0.4033775494807353,
          "340": -0.08941307242021312,
          "341": -0.32000590409399654,
          "342": -0.15707903356742367,
          "343": -0.08643724274723476,
          "344": 0.03401730999834096,
          "345": -0.3247600827908094,
          "346": -0.19774963596866216,
          "347": -0.07963453577205021,
          "348": -0.09165039089198804,
          "349": -0.3355278462769946,
          "350": 0.04833216326786782,
          "351": -0.14125487659101232,
          "352": -0.2072134692016028,
          "353": -0.24654902617127822,
          "354": 0.03349460739280431,
          "355": 0.047068564472274005,
          "356": 0.06992773789176752,
          "357": -0.06931715940602436,
          "358": -0.0925160297229216,
          "359": -0.18774279896253426,
          "360": -0.09045805816019306,
          "361": -0.17360398041573355,
          "362": 0.02214806180717541,
          "363": -0.02830490867711034,
          "364": -0.16330073111326038,
          "365": 0.10967898062537867,
          "366": 0.06892685411230587,
          "367": 0.012236133799137941,
          "368": 0.1223888155037435,
          "369": 0.16401923535763374,
          "370": -0.05931722360688604,
          "371": 0.1338976959178646,
          "372": -0.004827707754043832,
          "373": 0.07800906903550839,
          "374": -0.035501507398079134,
          "375": -0.21015490116965213,
          "376": -0.020478986874695633,
          "377": 0.05969601504134057,
          "378": 0.06467129347208642,
          "379": 0.0757128893698935,
          "380": -0.11078663940413946,
          "381": 0.07752841690720656,
          "382": 0.07206897235265781,
          "383": -0.16097808796409058,
          "384": -0.17446119052253153,
          "385": -0.05675251663904071,
          "386": 0.042477695497518904,
          "387": 0.17219531987362138,
          "388": -0.06551309200528461,
          "389": 0.019941472762225444,
          "390": -0.0007609422690272535,
          "391": 0.21675887616360917,
          "392": -0.04446786664598136,
          "393": -0.033058602983656836,
          "394": 0.346656716474021,
          "395": 0.23740700749903768,
          "396": 0.318437139988355,
          "397": 0.3516590175429466,
          "398": 0.2903155918788392,
          "399": 0.2874029960449453
        }
      },
      "1": {
        "bias": 0.014232970240293645,
        "weights": {
          "0": -0.2055174602865233,
          "1": 0.08711996007781805,
          "2": 0.004765907646438184,
          "3": -0.11996185191008196,
          "4": 0.14702470169125736,
          "5": 0.08393707176244888,
          "6": 0.09806037887239333,
          "7": -0.018722586790020142,
          "8": -0.09063678021983913,
          "9": -0.02599099507125561,
          "10": 0.03230134638305887,
          "11": -0.06886196831562108,
          "12": 0.0761933261861789,
          "13": 0.21968945931221448,
          "14": 0.24606742401324416,
          "15": 0.1067402914459474,
          "16": 0.04520291828871923,
          "17": -0.0938863893569532,
          "18": -0.22847357560928666,
          "19": -0.14523581407808306,
          "20": -0.022983396164870884,
          "21": 0.09518570940596066,
          "22": -0.22918572569581774,
          "23": 0.05718865937612493,
          "24": 0.12021970355333027,
          "25": 0.03646260902257081,
          "26": -0.17571019657370635,
          "27": -0.11999735519812593,
          "28": 0.013449275256402665,
          "29": 0.04718416973733028,
          "30": 0.18539136845694754,
          "31": 0.11526299402258834,
          "32": 0.21351243696492833,
          "33": 0.13914551162652253,
          "34": -0.042841231854720004,
          "35": -0.006428839448798535,
          "36": -0.12108852774224046,
          "37": 0.10069574081915454,
          "38": -0.07023217262167282,
          "39": -0.1269230358529462,
          "40": -0.014037086347022245,
          "41": 0.17837726307696905,
          "42": 0.019884775768261892,
          "43": 0.10061960003079011,
          "44": -0.1407164473771284,
          "45": -0.2229489434942618,
          "46": -0.20665539565006427,
          "47": -0.08953025680832173,
          "48": 0.15748052276008995,
          "49": -0.07408963773557926,
          "50": -0.07262722318296448,
          "51": 0.0462634706423488,
          "52": -0.15887704252076265,
          "53": 0.09814399651156801,
          "54": 0.016060517011368486,
          "55": 0.09840259515786236,
          "56": 0.027900070170841083,
          "57": 0.07863650385243941,
          "58": -0.16619520470211627,
          "59": -0.15367997673584077,
          "60": -0.2291579352833097,
          "61": 0.11264393992298392,
          "62": 0.02458997065010114,
          "63": -0.032815337137553184,
          "64": -0.13569677886728065,
          "65": 0.14576089278657153,
          "66": 0.181049598212935,
          "67": -0.11516353963145548,
          "68": 0.18814172320326727,
          "69": -0.08548065176717505,
          "70": 0.07010117451652907,
          "71": -0.06052844004146971,
          "72": -0.0945886213403441,
          "73": 0.02745865795763569,
          "74": 0.12263269646505533,
          "75": 0.23462917497943014,
          "76": 0.25401002302611514,
          "77": 0.12326639699304405,
          "78": 0.2779794330870105,
          "79": 0.4227186857485809,
          "80": 0.36453393418340846,
          "81": 0.19442690759668188,
          "82": 0.11164705010763079,
          "83": 0.0921822230912698,
          "84": 0.2557128719542614,
          "85": 0.10031016729326958,
          "86": 0.15548437739870533,
          "87": 0.24295951103361638,
          "88": 0.1304531584107729,
          "89": 0.34081107147379486,
          "90": 0.16515482701138837,
          "91": 0.25201753869006843,
          "92": 0.15540276561928243,
          "93": -0.0510770088134124,
          "94": -0.07138319492037384,
          "95": 0.2587152338318671,
          "96": 0.04522006005342381,
          "97": 0.2222375237890231,
          "98": 0.21718908119031163,
          "99": 0.025220281446516817,
          "100": 0.2627257919672654,
          "101": -0.02061503434877507,
          "102": 0.20672317496168607,
          "103": 0.1175018984516705,
          "104": 0.157935059558715,
          "105": 0.05008323686125208,
          "106": -0.1840914306951914,
          "107": -0.1707706370545983,
          "108": -0.023484019838568595,
          "109": -0.15307456685483573,
          "110": -0.13896003095535794,
          "111": 0.06580676445343518,
          "112": -0.048960396503586294,
          "113": -0.1664299268912108,
          "114": -0.1386946200818064,
          "115": 0.18987074599806442,
          "116": 0.008953657866481403,
          "117": -0.13238885734438388,
          "118": -0.02089811394122767,
          "119": 0.021178689297658645,
          "120": -0.20615094420834848,
          "121": -0.2817830407929421,
          "122": -0.15357733878940646,
          "123": -0.34330552524744423,
          "124": -0.22981961563887274,
          "125": -0.1501696151172367,
          "126": -0.06676666979419922,
          "127": -0.13599493233665022,
          "128": -0.3906526325803732,
          "129": -0.30817060717823486,
          "130": -0.2526640729860528,
          "131": -0.1414956234728302,
          "132": -0.3391993371108449,
          "133": -0.4567208126803371,
          "134": -0.30434792613706363,
          "135": -0.4202884722136671,
          "136": -0.4219156100866714,
          "137": -0.46120873281777075,
          "138": -0.2728381004957406,
          "139": -0.4847661056770406,
          "140": -0.22444914293667037,
          "141": -0.4719797397127462,
          "142": -0.4057408812317204,
          "143": -0.3721395503605161,
          "144": -0.18472807773486005,
          "145": -0.25497508231042354,
          "146": -0.3735357624047163,
          "147": -0.23364856232542097,
          "148": -0.2942461056889251,
          "149": -0.42634007291500414,
          "150": -0.31195909810180106,
          "151": -0.11650423921014251,
          "152": -0.36195715820611807,
          "153": -0.2695113047001473,
          "154": -0.35930286866945016,
          "155": -0.3309736290736496,
          "156": -0.012301670057651534,
          "157": 0.0017192504665102767,
          "158": -0.24391757327056154,
          "159": 0.01956492762027375,
          "160": 0.006544267333275538,
          "161": 0.012914954597628123,
          "162": 0.11328654148426522,
          "163": 0.21381506758018737,
          "164": 0.10407135457204071,
          "165": 0.13182818572148436,
          "166": 0.2547165299729107,
          "167": 0.3065972495551489,
          "168": 0.10403623860114274,
          "169": 0.14429913668157393,
          "170": 0.1242626166214937,
          "171": 0.04117594823638758,
          "172": 0.09052426844143595,
          "173": 0.039443696607188876,
          "174": 0.1784859021357724,
          "175": 0.18892922514682842,
          "176": 0.21441003700837596,
          "177": 0.1816657219123628,
          "178": 0.03488289504138662,
          "179": 0.20201994814898064,
          "180": -0.017790831996869046,
          "181": -0.02831098081481288,
          "182": 0.024632225337348674,
          "183": -0.0003659152277719526,
          "184": 0.016092677892266344,
          "185": 0.235496017598588,
          "186": 0.14629877132696026,
          "187": 0.01930636511698728,
          "188": 0.35314621571692223,
          "189": 0.1760033066107427,
          "190": 0.3608205438214372,
          "191": 0.039817234719276465,
          "192": 0.3164975100283336,
          "193": 0.23199530610337132,
          "194": 0.20491623634468528,
          "195": 0.33947200476124584,
          "196": 0.061299465302728645,
          "197": 0.07838053448037983,
          "198": 0.16133290113444576,
          "199": 0.1620635132990623,
          "200": -0.013723282486631953,
          "201": 0.02048283576822551,
          "202": 0.2167065921678557,
          "203": 0.2174608928044853,
          "204": -0.10518984994318445,
          "205": 0.19386362180329314,
          "206": 0.2633587472409431,
          "207": 0.02034183984829461,
          "208": -0.08075145869343697,
          "209": 0.0034234478238757632,
          "210": -0.041925203722316756,
          "211": 0.05561150593641172,
          "212": 0.3782023223657237,
          "213": 0.01459619179679041,
          "214": 0.17703989825911898,
          "215": 0.2241791976033832,
          "216": 0.4009901419873311,
          "217": 0.3975295095463815,
          "218": 0.39650095519168105,
          "219": 0.360030528607319,
          "220": 0.41412594471249387,
          "221": 0.13599885004269685,
          "222": 0.26591012354774196,
          "223": 0.058136257407479,
          "224": 0.15680992952173037,
          "225": 0.22829418330381057,
          "226": 0.16191662730517611,
          "227": 0.05075819972736965,
          "228": 0.1388614780050276,
          "229": 0.12606794921103173,
          "230": 0.15864522919815863,
          "231": 0.26705042510390004,
          "232": 0.1575173552493967,
          "233": -0.00912486157640172,
          "234": 0.3220461393927624,
          "235": 0.09777671816822701,
          "236": 0.047569781662896014,
          "237": 0.16383983809423172,
          "238": 0.12088047041743852,
          "239": 0.14427687285648802,
          "240": 0.2139753697480343,
          "241": 0.15327658443451123,
          "242": 0.3244837992664206,
          "243": 0.3017675506983941,
          "244": 0.16729520492124889,
          "245": 0.2647837256791784,
          "246": -0.021385916292734182,
          "247": 0.2606240510978575,
          "248": 0.02013178413364046,
          "249": 0.12177341484444662,
          "250": 0.27268223831518695,
          "251": 0.09559473195335277,
          "252": 0.32647332037755517,
          "253": 0.4071845936108504,
          "254": 0.07136575742725815,
          "255": 0.30143626493575687,
          "256": 0.29935314451706396,
          "257": 0.14169070513178983,
          "258": 0.11550850673358773,
          "259": 0.27179816687691327,
          "260": -0.07530956297013053,
          "261": 0.18560367449415488,
          "262": -0.11488279844839043,
          "263": 0.16477957176478583,
          "264": -0.11413730217305632,
          "265": 0.10161625717085056,
          "266": 0.0802139140854063,
          "267": -0.017219479668229867,
          "268": 0.22072148684909154,
          "269": 0.12216886254352526,
          "270": -0.028308044114039026,
          "271": 0.21015293664517667,
          "272": 0.1626069009982534,
          "273": -0.05620508260794039,
          "274": -0.07162738327484182,
          "275": 0.02074029141154687,
          "276": -0.16272898040777398,
          "277": 0.05071748999668032,
          "278": 0.2061172083862706,
          "279": 0.045691642511305954,
          "280": -0.14944777193579314,
          "281": -0.11408627877913174,
          "282": 0.06803418785033487,
          "283": -0.17094453706348295,
          "284": -0.275733453509181,
          "285": 0.013593458398952268,
          "286": 0.009503987357036659,
          "287": -0.14942798791216275,
          "288": 0.0781937433071477,
          "289": 0.07585487264542277,
          "290": -0.13111613508777062,
          "291": -0.3302052551127003,
          "292": -0.056338802173276255,
          "293": -0.07013212592774963,
          "294": -0.0722137665512574,
          "295": 0.044182851844534424,
          "296": -0.2421780376718559,
          "297": -0.28521425290641234,
          "298": 0.11949779045836133,
          "299": -0.023781297261368718,
          "300": -0.019320056422445296,
          "301": -0.1731432427566336,
          "302": -0.22364845507674663,
          "303": -0.2636021556005911,
          "304": -0.2746046709779876,
          "305": 0.018793418800434933,
          "306": -0.04912764514683427,
          "307": -0.002038032787344042,
          "308": -0.2954352559412371,
          "309": -0.32087465384553315,
          "310": -0.09345449102554897,
          "311": -0.09799846881447632,
          "312": -0.1885449396209749,
          "313": -0.16540118200411458,
          "314": -0.18532290065928583,
          "315": 0.07003273269294105,
          "316": -0.006364302976622741,
          "317": 0.12465416897088279,
          "318": 0.06763241060334102,
          "319": 0.10214718171046236,
          "320": 0.10607454308292316,
          "321": -0.15039688731684078,
          "322": -0.0880096099937904,
          "323": 0.22013951715943977,
          "324": 0.22612084433205526,
          "325": 0.01895536955996184,
          "326": 0.07733883205157516,
          "327": 0.050260528269399356,
          "328": 0.016170030185226288,
          "329": 0.1326201059141939,
          "330": -0.004172878746222374,
          "331": 0.09747247515158934,
          "332": 0.08457576129717768,
          "333": -0.10621178894765727,
          "334": 0.17030245326982674,
          "335": -0.1577347176678179,
          "336": -0.09119553345790983,
          "337": 0.04316371475847139,
          "338": -0.11977118767829908,
          "339": -0.00813496360779116,
          "340": -0.22038838808153086,
          "341": 0.08841712934512903,
          "342": -0.12345613376451925,
          "343": 0.07042051356936638,
          "344": 0.0878157571544737,
          "345": -0.07436179504444208,
          "346": 0.02057817149358256,
          "347": 0.008021460434106733,
          "348": 0.06852417987283192,
          "349": 0.16261941280861683,
          "350": -0.05575453275658754,
          "351": -0.04614840919835764,
          "352": 0.007576980450984211,
          "353": -0.2582724491784809,
          "354": -0.18187498662354434,
          "355": -0.22864941729037846,
          "356": -0.009130831598062184,
          "357": -0.38007154159335615,
          "358": -0.08560346395428065,
          "359": -0.05201297701299505,
          "360": -0.11492141166698855,
          "361": -0.13652677249781706,
          "362": -0.06878555642764617,
          "363": -0.43151454040549314,
          "364": -0.37996457688954105,
          "365": -0.2305171825131198,
          "366": -0.09521295400967884,
          "367": -0.0929785857722762,
          "368": -0.2631125438131746,
          "369": 0.014576627605044664,
          "370": 0.05441765441281557,
          "371": -0.25498327096804646,
          "372": -0.1887637150176952,
          "373": -0.09359666861744197,
          "374": -0.1358593370520166,
          "375": -0.11483676176027298,
          "376": -0.1705843593966931,
          "377": -0.31187006751899005,
          "378": -0.11791397591526172,
          "379": -0.3356261878600288,
          "380": -0.08332842297070187,
          "381": -0.18018827681705757,
          "382": -0.11381403089917243,
          "383": -0.14517577163047335,
          "384": -0.051626628619591296,
          "385": -0.38809841056933037,
          "386": -0.33520953638085327,
          "387": -0.0693173548718988,
          "388": -0.24249211169327606,
          "389": -0.19470175949347568,
          "390": -0.19505756883113382,
          "391": -0.3386873099558019,
          "392": -0.41267512783984805,
          "393": -0.43672012714098746,
          "394": -0.38035856943906643,
          "395": -0.632660470981018,
          "396": -0.2700438076006173,
          "397": -0.6492134581411135,
          "398": -0.6392378779314731,
          "399": -0.48865275111746076
        }
      },
      "2": {
        "bias": -0.34320874645786015,
        "weights": {
          "0": 0.3816685071969574,
          "1": -0.0003762993793011209,
          "2": 0.09624692811810696,
          "3": 0.025650006541691184,
          "4": 0.1266437253277991,
          "5": 0.13837593918237034,
          "6": 0.20645544594808218,
          "7": 0.24445456847100056,
          "8": 0.31424359667319285,
          "9": 0.07521996967328723,
          "10": 0.3531277895671105,
          "11": 0.09816930055437977,
          "12": 0.21337453972331769,
          "13": 0.12213425632197714,
          "14": 0.008957006563437042,
          "15": 0.2633397601778516,
          "16": 0.2660619983505121,
          "17": 0.09044841792711952,
          "18": 0.10595306691847647,
          "19": 0.29990135805800083,
          "20": 0.1661207685475563,
          "21": 0.12255771522116025,
          "22": 0.48233807686667646,
          "23": 0.3711046586716736,
          "24": 0.3430743418512974,
          "25": 0.5189996662247037,
          "26": 0.5675497609429873,
          "27": 0.4752211134468785,
          "28": 0.505105228328712,
          "29": 0.24213422046994668,
          "30": 0.40409816361200634,
          "31": 0.3576752481234404,
          "32": 0.12774812236034613,
          "33": 0.2656895058739037,
          "34": 0.4013158459588964,
          "35": 0.3884345540725928,
          "36": 0.35185203375373686,
          "37": 0.016495728743791495,
          "38": 0.3928579532854934,
          "39": 0.23973939363181584,
          "40": 0.04046073469804231,
          "41": 0.30231265919915995,
          "42": -0.04149923482520684,
          "43": 0.04169058383550326,
          "44": -0.0594306572458204,
          "45": 0.10650077746305432,
          "46": 0.1830788656206264,
          "47": -0.040632144183794454,
          "48": -0.12542095998454988,
          "49": 0.06387517660829059,
          "50": 0.2254638460198205,
          "51": 0.18900227476944437,
          "52": -0.1413957779376525,
          "53": 0.1259641061076416,
          "54": 0.08705708602584245,
          "55": 0.03865366396304156,
          "56": -0.2346190796309268,
          "57": 0.008136229629435656,
          "58": -0.011649518149820305,
          "59": -0.39672830665353515,
          "60": -0.33717880625507807,
          "61": -0.2689234180543955,
          "62": -0.09827517573453044,
          "63": -0.42605003932567587,
          "64": -0.3848977893165593,
          "65": -0.31397290206155776,
          "66": -0.28157173589751633,
          "67": -0.013338228938763281,
          "68": -0.29666821765958373,
          "69": -0.30762540483234885,
          "70": -0.1341221884811776,
          "71": -0.277344162409006,
          "72": -0.33833495613632003,
          "73": -0.0652192246478303,
          "74": -0.06364325401203659,
          "75": -0.3148680621480951,
          "76": -0.09964223221083056,
          "77": -0.28515222469238816,
          "78": -0.2634678094368237,
          "79": -0.4565468667282457,
          "80": -0.4614569724574368,
          "81": -0.2985682375232161,
          "82": -0.19491881514720696,
          "83": -0.4730969542126192,
          "84": -0.18174609077064852,
          "85": -0.5481830131550203,
          "86": -0.2235287899908459,
          "87": -0.19538602860980675,
          "88": -0.3594651478224056,
          "89": -0.3958903749578265,
          "90": 0.04246613425965855,
          "91": -0.23349911631969283,
          "92": -0.26276780055828936,
          "93": 0.10206439100953132,
          "94": 0.09364399131717664,
          "95": -0.07012149226537845,
          "96": 0.059186270040162296,
          "97": -0.20187884560128957,
          "98": -0.08112975215083477,
          "99": 0.10542198040127627,
          "100": 0.20414592165911535,
          "101": -0.08317866446357086,
          "102": 0.09989277290326048,
          "103": -0.05204412337133269,
          "104": -0.12301634308064492,
          "105": 0.17610577101913008,
          "106": -0.2570144319847437,
          "107": 0.10103296916772869,
          "108": -0.03151660769327183,
          "109": -0.033229239323796504,
          "110": -0.12854071808079598,
          "111": 0.025514822952311333,
          "112": -0.06815576489779282,
          "113": -0.12964115283789884,
          "114": -0.14825824775251628,
          "115": -0.2598050154299626,
          "116": -0.25512557144747705,
          "117": -0.04151432147380684,
          "118": -0.2290413317157056,
          "119": -0.13015333478113478,
          "120": 0.1465103115465872,
          "121": -0.09634334226108295,
          "122": -0.19806964888340314,
          "123": -0.2588159921686516,
          "124": -0.041144838748005626,
          "125": -0.18296614107057307,
          "126": 0.12304721906106608,
          "127": -0.2264279358997822,
          "128": -0.04484929975705489,
          "129": -0.09657992431362734,
          "130": 0.07052249300162196,
          "131": 0.07042591163099415,
          "132": -0.005142786776350609,
          "133": 0.003204870971743196,
          "134": 0.11002523525638909,
          "135": 0.1157956249659421,
          "136": 0.2880821710435468,
          "137": 0.14050504745630701,
          "138": 0.09284803565882983,
          "139": 0.014060456280013539,
          "140": 0.026263549582415186,
          "141": 0.05447331516581144,
          "142": 0.0448755248436502,
          "143": 0.1604677413627254,
          "144": 0.23019102835532068,
          "145": 0.1681415162698731,
          "146": 0.0021814905960693765,
          "147": 0.11381882215011119,
          "148": -0.0026701276784149536,
          "149": -0.12388287337138532,
          "150": 0.027328074879649,
          "151": -0.19142989600178517,
          "152": -0.1841211781307321,
          "153": -0.21183237996735538,
          "154": -0.10584548018410452,
          "155": -0.0783216952884376,
          "156": -0.15023570256332694,
          "157": -0.007406124813329178,
          "158": 0.08559149379753359,
          "159": 0.33496239329654787,
          "160": 0.11541564868809155,
          "161": 0.30554809568729807,
          "162": 0.136466227819983,
          "163": 0.17782226656367728,
          "164": 0.3107782883981967,
          "165": 0.6455316038371066,
          "166": 0.5138671720797109,
          "167": 0.4621431748606565,
          "168": 0.14832933764514122,
          "169": 0.05730957209699345,
          "170": 0.11735569355607096,
          "171": -0.0888320946220555,
          "172": -0.014910243571161106,
          "173": -0.14695304382815577,
          "174": 0.10162529445146948,
          "175": 0.11596564430973957,
          "176": -0.047075114371229486,
          "177": 0.09427053938278743,
          "178": 0.1161173090952442,
          "179": -0.1864178170534368,
          "180": -0.23674697389227126,
          "181": -0.0616593266747006,
          "182": -0.09838778883116148,
          "183": -0.1997185692407162,
          "184": -0.10645812814180645,
          "185": -0.050351304167488106,
          "186": -0.12480831618620392,
          "187": -0.27010603631038194,
          "188": -0.2038549330858992,
          "189": -0.34884445951567783,
          "190": -0.17912261084192765,
          "191": -0.2456553504863892,
          "192": -0.09797430438390996,
          "193": -0.21948672799999855,
          "194": -0.3980229817934287,
          "195": -0.5127602863760354,
          "196": -0.36819817958369894,
          "197": -0.2758719128682108,
          "198": -0.46791753659285773,
          "199": -0.1255035817049848,
          "200": -0.25486804602121,
          "201": -0.09364093201702767,
          "202": -0.35090740991120384,
          "203": -0.455862389649402,
          "204": -0.3374400468503353,
          "205": -0.4390109434097419,
          "206": -0.5163755913378527,
          "207": -0.20060210556944327,
          "208": -0.45281727294009994,
          "209": -0.5185755917055779,
          "210": -0.46056615926644945,
          "211": -0.4248434237671688,
          "212": -0.4629790098295835,
          "213": -0.42911755311351024,
          "214": -0.3158427781668167,
          "215": -0.05211405052521752,
          "216": -0.15186550151889203,
          "217": -0.20995147302741154,
          "218": -0.3952710190860855,
          "219": -0.13299699237248913,
          "220": -0.014648973985273747,
          "221": -0.3003778660499671,
          "222": 0.0247833471311749,
          "223": 0.006975732485677512,
          "224": 0.012665586021252956,
          "225": 0.03499959876645137,
          "226": -0.04933590968717904,
          "227": 0.16720970116782582,
          "228": -0.10044171719091724,
          "229": -0.04697594907680739,
          "230": 0.010022226885395618,
          "231": -0.05869420906106679,
          "232": -0.05062696200816493,
          "233": -0.21173699819006647,
          "234": 0.12722002233717652,
          "235": 0.10154869200536126,
          "236": -0.010026206925670222,
          "237": 0.11280137228340342,
          "238": 0.11055352247480683,
          "239": 0.18460261679486406,
          "240": 0.04251324662409632,
          "241": 0.052133230875821474,
          "242": 0.16204377322770983,
          "243": -0.06446862972278457,
          "244": -0.14738407832690759,
          "245": 0.02756240047017621,
          "246": 0.17458889463098778,
          "247": 0.05825894745619124,
          "248": 0.20814506893501197,
          "249": 0.027484785744902176,
          "250": 0.037940460396899155,
          "251": 0.2484776237041653,
          "252": 0.01523581067200727,
          "253": 0.06515265633789069,
          "254": 0.2722608374590423,
          "255": 0.3317268715907058,
          "256": 0.19152136592327765,
          "257": 0.11396944908009338,
          "258": 0.006178565488329349,
          "259": -0.07952692820208315,
          "260": -0.14933687980785898,
          "261": -0.12201668315218896,
          "262": 0.08186368445540027,
          "263": -0.0005282880658955066,
          "264": 0.004810640871156007,
          "265": -0.18912172614388686,
          "266": 0.08754274781361457,
          "267": -0.10255672264526132,
          "268": -0.17986238597579948,
          "269": -0.31800780504101916,
          "270": -0.31393935085828834,
          "271": -0.3347319116553789,
          "272": -0.10904228910306822,
          "273": -0.09141692762598187,
          "274": -0.34529666324393454,
          "275": -0.24893401761187625,
          "276": -0.16064253767636819,
          "277": -0.2163987582961314,
          "278": -0.27145847343807256,
          "279": -0.011088449151274365,
          "280": -0.2187206930569419,
          "281": -0.020496688394679375,
          "282": -0.10141499699965978,
          "283": -0.10117834902179845,
          "284": -0.14823248781477685,
          "285": -0.08314929535243126,
          "286": -0.07636930458317115,
          "287": 0.09101586033793531,
          "288": -0.10368237456283437,
          "289": -0.023366320150889578,
          "290": -0.16203885578085234,
          "291": -0.06933178717785957,
          "292": -0.0877421611316185,
          "293": 0.19481696991058303,
          "294": 0.1739617341164876,
          "295": -0.0734538545052169,
          "296": 0.10496557715890877,
          "297": 0.04785005722321177,
          "298": 0.3485552833446047,
          "299": 0.15955125912670617,
          "300": 0.018100723764733692,
          "301": 0.3710253236957331,
          "302": 0.3987942449120693,
          "303": 0.0433664828274404,
          "304": 0.2937924106106211,
          "305": 0.23207763438922244,
          "306": 0.26541184313292177,
          "307": 0.41766251689153494,
          "308": 0.09239664038484881,
          "309": 0.07606763788665415,
          "310": 0.258087487557465,
          "311": 0.22285992256431897,
          "312": 0.09235765043762889,
          "313": 0.04053898808765981,
          "314": 0.2336383048446796,
          "315": 0.26145650075857985,
          "316": 0.2513921589015152,
          "317": 0.31028532573498513,
          "318": 0.2744313814605386,
          "319": 0.12946614636616424,
          "320": 0.08397342235316621,
          "321": 0.3371072973780792,
          "322": 0.06778675583593978,
          "323": 0.11203767789432174,
          "324": 0.23337535708345905,
          "325": 0.22312710540267394,
          "326": 0.1645876110612274,
          "327": 0.10389386642415323,
          "328": -0.15023137281690707,
          "329": -0.036828732306060374,
          "330": -0.23079403681605185,
          "331": 0.03540300734035358,
          "332": 0.09594821502162966,
          "333": -0.08320885319691075,
          "334": 0.000382380330362926,
          "335": -0.06455179740185407,
          "336": -0.15519762685517283,
          "337": -0.15665454816809687,
          "338": 0.059161350249587796,
          "339": -0.18674713573298804,
          "340": -0.09943254695329673,
          "341": 0.25889809991905444,
          "342": 0.23794167954142512,
          "343": -0.035315270835344435,
          "344": 0.20162305537678435,
          "345": 0.24163936388276058,
          "346": 0.018476098281014618,
          "347": 0.23950603505260054,
          "348": 0.19311943811185597,
          "349": 0.3081691028161315,
          "350": 0.007662305845270372,
          "351": 0.12498047297908584,
          "352": 0.08517419864447202,
          "353": -0.2210096176739242,
          "354": 0.06200042489553976,
          "355": 0.07624157546298672,
          "356": -0.3175588318371899,
          "357": -0.1264558055594635,
          "358": -0.4031962824233496,
          "359": -0.3140359630237334,
          "360": -0.21356896085911298,
          "361": -0.4663844306081364,
          "362": -0.24543910688016687,
          "363": -0.39877018300254174,
          "364": -0.42032399415195293,
          "365": -0.38461120158489825,
          "366": -0.10261010447548502,
          "367": -0.2370389150238629,
          "368": -0.10766083222762393,
          "369": -0.15011217867632834,
          "370": -0.15338925559045608,
          "371": -0.21047856659070463,
          "372": 0.009784905851210677,
          "373": 0.009878488606294523,
          "374": 0.060843808941514636,
          "375": 0.031760502071410374,
          "376": -0.1900355568097044,
          "377": -0.1565111106222122,
          "378": -0.069710964332782,
          "379": 0.11995565021162023,
          "380": -0.04571153143172513,
          "381": 0.1815215348935092,
          "382": 0.2757371169083458,
          "383": 0.20930891378540029,
          "384": 0.13177477799610887,
          "385": 0.0675211658820882,
          "386": 0.38911385266527115,
          "387": 0.26155920446495595,
          "388": 0.15142546550046973,
          "389": 0.20826512488532126,
          "390": 0.3711359723047267,
          "391": 0.15336136638011644,
          "392": 0.09538248345445577,
          "393": 0.44337816553064685,
          "394": 0.17186947942100134,
          "395": 0.40619449662182994,
          "396": 0.3933595650678052,
          "397": 0.49839729331710925,
          "398": 0.38556577872394177,
          "399": 0.4188261269696184
        }
      },
      "3": {
        "bias": 0.14605522560774403,
        "weights": {
          "0": 0.3734643926740309,
          "1": 0.37884473552262754,
          "2": 0.3652138210229615,
          "3": 0.5083555105652905,
          "4": 0.42471686672812986,
          "5": 0.35771164939498695,
          "6": 0.2755086164825012,
          "7": 0.1099242971228678,
          "8": 0.11359598007717293,
          "9": 0.057038896796940276,
          "10": 0.07638084340373395,
          "11": 0.13538484760191974,
          "12": -0.03204176007526813,
          "13": 0.18839146224848058,
          "14": 0.20142874097992625,
          "15": 0.15060870855718966,
          "16": -0.028512193334323994,
          "17": -0.18648373275807043,
          "18": 0.11824992420031231,
          "19": 0.05768096643503375,
          "20": -0.15170963285923827,
          "21": 0.1404642762944899,
          "22": -0.16354641876750112,
          "23": 0.07532791324461367,
          "24": 0.10973188339177381,
          "25": 0.0735619865538067,
          "26": 0.11657020826902609,
          "27": 0.02126956662783785,
          "28": -0.082732046517479,
          "29": -0.14015793132039583,
          "30": -0.30816642026723295,
          "31": -0.10786955731655036,
          "32": -0.12554041595226598,
          "33": -0.2635898857185822,
          "34": -0.40294545184348995,
          "35": -0.26433525357272863,
          "36": -0.11945390334404567,
          "37": -0.3530400498201859,
          "38": -0.34928500077318364,
          "39": -0.22521249240361538,
          "40": -0.4641707402433348,
          "41": -0.19493358961125237,
          "42": -0.17942718690051765,
          "43": -0.4379799789989255,
          "44": -0.23337718193522475,
          "45": -0.34209751985895304,
          "46": -0.3238775753853163,
          "47": -0.25161838992618546,
          "48": -0.42008227267919845,
          "49": -0.15323843080196764,
          "50": -0.20994572741517883,
          "51": -0.25354169913843305,
          "52": -0.3225427545671335,
          "53": -0.1706862134668478,
          "54": -0.34349677511841054,
          "55": -0.3249728901673208,
          "56": -0.2764461721566624,
          "57": -0.24308904438615767,
          "58": -0.15065869708045412,
          "59": -0.15004193056598567,
          "60": -0.30258586755013234,
          "61": -0.2376038368861904,
          "62": -0.2360754469790547,
          "63": -0.035666129443161255,
          "64": -0.1669143145122628,
          "65": -0.09920571913997915,
          "66": -0.018933770831636127,
          "67": -0.07733082257222779,
          "68": 0.029043927074443032,
          "69": -0.1115651568493826,
          "70": -0.28821994529210915,
          "71": -0.19640986966660773,
          "72": -0.2736085654831964,
          "73": 0.005969122524594385,
          "74": -0.14174673174615388,
          "75": -0.31159132094483916,
          "76": -0.02299814341992585,
          "77": -0.09078413369889385,
          "78": 0.12911150641594235,
          "79": 0.11898457101223066,
          "80": 0.04562958517664773,
          "81": 0.02852849778604824,
          "82": -0.28977840014056067,
          "83": -0.056786012791275216,
          "84": -0.1933901222122621,
          "85": -0.21254598183817167,
          "86": -0.19209047297775272,
          "87": -0.48375490457001225,
          "88": -0.5286757996550319,
          "89": -0.2349295807666161,
          "90": -0.47442826388967996,
          "91": -0.5075124182314651,
          "92": -0.3137501772704462,
          "93": -0.2335122849282287,
          "94": -0.29667411670532334,
          "95": -0.20697322241980187,
          "96": -0.08218724607719043,
          "97": -0.4179552925597074,
          "98": -0.36864905162518996,
          "99": -0.24472475000369107,
          "100": -0.4148639730968995,
          "101": -0.1910996216818502,
          "102": -0.403677410868065,
          "103": -0.08653428321134742,
          "104": -0.33271821378694755,
          "105": -0.17632842434301477,
          "106": -0.06540944550144286,
          "107": -0.06361524623714944,
          "108": -0.3133924612470035,
          "109": -0.006872581489208051,
          "110": 0.07694498237737672,
          "111": -0.1616019558874988,
          "112": -0.07696400434486449,
          "113": -0.028112036385240097,
          "114": -0.13167566199373346,
          "115": 0.007906399904553853,
          "116": -0.051100438436003724,
          "117": 0.1929627384507624,
          "118": 0.08508089768130629,
          "119": 0.20343926909511295,
          "120": 0.2379867717720164,
          "121": 0.007132546370573869,
          "122": 0.09551662086135818,
          "123": 0.1151622522341347,
          "124": -0.10284557671568703,
          "125": 0.08132261171414304,
          "126": 0.03572176578083501,
          "127": 0.06296142601765228,
          "128": 0.1938108507379083,
          "129": -0.18842918300645042,
          "130": -0.09821916277053722,
          "131": 0.1579002676992481,
          "132": -0.05281382532098267,
          "133": 0.10236723874854348,
          "134": 0.2582488328151735,
          "135": 0.20548752706164358,
          "136": 0.2348688611699932,
          "137": 0.08100641651189573,
          "138": 0.2216371290370569,
          "139": -0.011295517379496299,
          "140": -0.046409943972749626,
          "141": -0.1720358339333698,
          "142": 0.012371825764431719,
          "143": 0.09601996323448386,
          "144": 0.16608882931618799,
          "145": 0.08138957208794444,
          "146": 0.06451259248862738,
          "147": 0.065627400994285,
          "148": 0.032146690197675326,
          "149": -0.16662590613763567,
          "150": -0.11387909074836977,
          "151": -0.06404023666028724,
          "152": 0.08163888705125771,
          "153": -0.34129493377032216,
          "154": -0.18448574291951242,
          "155": -0.29117887804822956,
          "156": -0.4080912364579803,
          "157": -0.18127161725411073,
          "158": -0.37764388205062044,
          "159": -0.33688714399932057,
          "160": -0.34352160339484916,
          "161": -0.2399150460224005,
          "162": -0.4063666341767682,
          "163": -0.3413472509127489,
          "164": -0.361684891699434,
          "165": -0.24962963072840905,
          "166": -0.48236013557371715,
          "167": -0.42510542128818896,
          "168": -0.28443939143448477,
          "169": -0.27363876578630797,
          "170": -0.07649281608603523,
          "171": -0.42050731913670336,
          "172": -0.2230245680736707,
          "173": -0.13226498094748484,
          "174": -0.2198501646508269,
          "175": -0.20421668278210614,
          "176": -0.29346201917001136,
          "177": -0.10727038255766923,
          "178": -0.2744481017326481,
          "179": -0.35413382897253837,
          "180": -0.30302110881780214,
          "181": -0.25929630546729726,
          "182": -0.23955312015799368,
          "183": -0.09294561502551353,
          "184": -0.1291118130803442,
          "185": 0.0102289404414599,
          "186": -0.010348166923476931,
          "187": -0.24021412429343514,
          "188": -0.030753700764349568,
          "189": 0.09596255138971561,
          "190": -0.11671537347965037,
          "191": 0.08543571546808378,
          "192": 0.14796926010741132,
          "193": 0.037481393272892384,
          "194": 0.0006842551827915034,
          "195": 0.17140938478603643,
          "196": 0.16615078870352565,
          "197": 0.09792741951155312,
          "198": -0.1864792655731185,
          "199": 0.0394645339264779,
          "200": 0.08569568850340527,
          "201": -0.06373381725936919,
          "202": 0.15722109770963025,
          "203": 0.09361417963943015,
          "204": 0.18056187408149763,
          "205": 0.07452729977873541,
          "206": 0.3382770210423261,
          "207": 0.13697911889040565,
          "208": 0.30228823371402824,
          "209": 0.051381634481138215,
          "210": 0.0705678161363505,
          "211": 0.18390513335407674,
          "212": 0.19174434385152386,
          "213": 0.20046549545336886,
          "214": -0.036424913024834006,
          "215": 0.044609603641281054,
          "216": -0.03050813959781434,
          "217": -0.09181035203262768,
          "218": 0.06361551375033928,
          "219": 0.06343177693380012,
          "220": -0.0020097435871439823,
          "221": 0.057569776936233386,
          "222": -0.1233755331694857,
          "223": -0.3342007706001476,
          "224": -0.33715742263742254,
          "225": -0.08772304781616073,
          "226": 0.07732915755457198,
          "227": -0.19250489981858723,
          "228": 0.050607735616821706,
          "229": 0.05976245323562678,
          "230": -0.08345883118988741,
          "231": 0.2157961337512289,
          "232": 0.19047357036064735,
          "233": 0.015598078882416242,
          "234": -0.14354640003695848,
          "235": -0.08292223897077564,
          "236": 0.13548478881067935,
          "237": -0.24802179183235998,
          "238": -0.20453361336620865,
          "239": -0.0967526442931782,
          "240": -0.3185884291146861,
          "241": -0.28661342934705986,
          "242": -0.1002199549785224,
          "243": -0.05059313370762663,
          "244": 0.05614000222899788,
          "245": 0.2194617105300423,
          "246": 0.19333721511058005,
          "247": 0.18797839205589337,
          "248": -0.009648793679983392,
          "249": 0.14112010947120004,
          "250": -0.09193490192692888,
          "251": 0.13767895817159786,
          "252": -0.1635205068064424,
          "253": 0.08985671158794059,
          "254": -0.15220899785137892,
          "255": 0.10603080965961466,
          "256": -0.25875028114829746,
          "257": -0.25342522680694385,
          "258": 0.07168061835777685,
          "259": 0.09015869462210971,
          "260": -0.2313151874068885,
          "261": -0.1784571158359082,
          "262": 0.11793166744536501,
          "263": 0.007417156238026907,
          "264": -0.06825485234091047,
          "265": -0.0960453615043804,
          "266": -0.34932209988775015,
          "267": -0.24783110492716628,
          "268": -0.0036487483406793184,
          "269": -0.08677862690376395,
          "270": -0.051346126068770974,
          "271": -0.08929268105137428,
          "272": 0.05026994867260921,
          "273": -0.2819793475186988,
          "274": -0.17318368187760302,
          "275": -0.12751087605122152,
          "276": 0.0022192646302333897,
          "277": -0.1870822129418735,
          "278": -0.1394447860466561,
          "279": -0.16285514625014,
          "280": 0.11048402261625877,
          "281": 0.022886751549890463,
          "282": -0.23871772005623298,
          "283": -0.08779658566756042,
          "284": 0.11655828361974634,
          "285": 0.14443819427458074,
          "286": 0.05687700306377617,
          "287": 0.06624873885224329,
          "288": 0.006730692330461026,
          "289": -0.06034194718800067,
          "290": -0.2370622632093925,
          "291": 0.031176739530150748,
          "292": -0.16000109851411248,
          "293": -0.06313658855865782,
          "294": 0.024679043298151175,
          "295": -0.26086304351155765,
          "296": -0.075833764986655,
          "297": -0.14708204177850298,
          "298": -0.11439503857421923,
          "299": 0.12176719513774983,
          "300": -0.10280606654247179,
          "301": 0.015802960641733182,
          "302": -0.05639128227171925,
          "303": -0.145152285886624,
          "304": -0.16433235320662648,
          "305": 0.11855293901858957,
          "306": 0.00528442585860946,
          "307": 0.15915343223336376,
          "308": -0.16137042231083207,
          "309": 0.1320946902228955,
          "310": -0.05784088271897866,
          "311": 0.06821817333857881,
          "312": -0.06797630119368489,
          "313": 0.05787557324509505,
          "314": 0.1154234188914103,
          "315": 0.11001326476221836,
          "316": 0.09572909965865115,
          "317": -0.2355449586276127,
          "318": 0.06205085715648294,
          "319": -0.05164311546800528,
          "320": -0.033810206345723355,
          "321": -0.1468345272430449,
          "322": -0.02061794966280984,
          "323": 0.0046935572440981385,
          "324": 0.17291760405357715,
          "325": -0.06220403208553751,
          "326": 0.06576265627840752,
          "327": -0.02564425643904292,
          "328": 0.18547732536042913,
          "329": 0.04459000853279302,
          "330": 0.2956585157368585,
          "331": 0.27537712291113514,
          "332": 0.27100937369967554,
          "333": 0.508711390328743,
          "334": 0.1690730791555881,
          "335": 0.3088061009877873,
          "336": 0.4328078656508008,
          "337": 0.34217169100061073,
          "338": 0.19314253370284296,
          "339": 0.29867557410491996,
          "340": 0.31170184662110273,
          "341": 0.12478279805949884,
          "342": 0.1516106473233182,
          "343": 0.11482341338512737,
          "344": 0.30570862017527156,
          "345": 0.021419885623971034,
          "346": 0.00039944704582396597,
          "347": 0.1624945282164649,
          "348": 0.10277836656218035,
          "349": 0.12581792768144898,
          "350": 0.29005140854971617,
          "351": -0.05523608136234201,
          "352": 0.35271879549167723,
          "353": 0.19258601191869432,
          "354": 0.2927264460890937,
          "355": 0.040415614421795636,
          "356": 0.29580667531536414,
          "357": 0.42020433857627637,
          "358": 0.41953959856193535,
          "359": 0.4998586057101329,
          "360": 0.23961177719692697,
          "361": 0.4715268143774175,
          "362": 0.10115701698556519,
          "363": 0.05939404042773002,
          "364": 0.2924326450250476,
          "365": 0.01597057087411741,
          "366": 0.34525851357491577,
          "367": -0.005417754072424594,
          "368": 0.3356222504681096,
          "369": 0.2262100860775731,
          "370": -0.0411960947617444,
          "371": 0.2179315716635809,
          "372": 0.12784173990976053,
          "373": 0.1739286080306369,
          "374": -0.011245812279836571,
          "375": -0.008454720879726188,
          "376": -0.05388480725360431,
          "377": -0.011722663104806408,
          "378": 0.05440971325777011,
          "379": 0.17967975319781962,
          "380": 0.1927355959612842,
          "381": -0.04125489120407134,
          "382": 0.134867569511433,
          "383": 0.13961903483861277,
          "384": 0.0315928811373046,
          "385": -0.07334107424462699,
          "386": 0.016899494983996254,
          "387": 0.12334425602817405,
          "388": -0.20740824855907272,
          "389": 0.11372321596320362,
          "390": 0.11365242558129783,
          "391": 0.03110705825507274,
          "392": 0.03228711530651813,
          "393": -0.16297044179254283,
          "394": -0.2472137288670793,
          "395": -0.2220405802847876,
          "396": -0.2261926121321847,
          "397": -0.0610991428277579,
          "398": -0.3639610905257956,
          "399": -0.14153778483804627
        }
      },
      "4": {
        "bias": 0.07995552376964059,
        "weights": {
          "0": 0.24597007778945426,
          "1": 0.07504809190047855,
          "2": 0.18788022172479907,
          "3": 0.1093230309247661,
          "4": 0.30037509693065584,
          "5": 0.014123335957759867,
          "6": -0.10884724968094077,
          "7": 0.008314352542714924,
          "8": 0.14369870718702302,
          "9": 0.1836806931265324,
          "10": -0.12434751036336854,
          "11": 0.10412126311232434,
          "12": -0.21523659212923596,
          "13": 0.04363751936713924,
          "14": -0.1168799462806058,
          "15": 0.08126501663696196,
          "16": -0.18867558870304116,
          "17": -0.24177013629869246,
          "18": -0.07228283933694538,
          "19": 0.03094366908695163,
          "20": -0.13611016038279294,
          "21": -0.16671372211375943,
          "22": 0.02877303437971359,
          "23": -0.014706470570385825,
          "24": -0.31056174889925137,
          "25": -0.30024023309940095,
          "26": -0.0054343459369109665,
          "27": -0.25207605152342805,
          "28": -0.20184412546998115,
          "29": -0.05899439828726076,
          "30": -0.08827605502463567,
          "31": -0.18567859327950564,
          "32": -0.05990298616155643,
          "33": -0.26924265009707904,
          "34": -0.2638688131967727,
          "35": 0.12837184303142482,
          "36": 0.02736129269637931,
          "37": 0.16758564413494623,
          "38": 0.15131305515517657,
          "39": 0.16738013024644605,
          "40": 0.1555598482051827,
          "41": 0.10642065483497914,
          "42": -0.08591024717393698,
          "43": 0.16367755812169174,
          "44": 0.02521195411060437,
          "45": 0.24106530062191023,
          "46": 0.12225153457255944,
          "47": -0.050755920342685695,
          "48": 0.2694107308105295,
          "49": 0.2247616366739512,
          "50": 0.13260685971291783,
          "51": -0.10671045775337139,
          "52": 0.2094104745136026,
          "53": -0.022227220426273453,
          "54": 0.02673933471690764,
          "55": -0.10303256048247561,
          "56": 0.051402719690498457,
          "57": 0.23240123209486602,
          "58": 0.0008377677768613529,
          "59": 0.24223093603467719,
          "60": 0.21960813786815955,
          "61": -0.05239683229374689,
          "62": -0.0029733227632502365,
          "63": 0.04722873265221129,
          "64": 0.19434409197306338,
          "65": -0.09557008531023554,
          "66": -0.24941510757880767,
          "67": 0.026989624498009443,
          "68": -0.2355200478804435,
          "69": -0.1987650423703154,
          "70": -0.09233533373736973,
          "71": -0.04729887988692004,
          "72": -0.04839855311837864,
          "73": 0.007100622318856384,
          "74": -0.27292831392497685,
          "75": -0.21050331431232774,
          "76": -0.2541579745198721,
          "77": -0.29406282611417045,
          "78": -0.2795637795749994,
          "79": 0.05672398174895933,
          "80": -0.017181939048388745,
          "81": -0.141690964534696,
          "82": 0.04268801400576674,
          "83": 0.15254567029101576,
          "84": 0.0629257096885171,
          "85": -0.006077909318591095,
          "86": 0.043335147885977865,
          "87": -0.07030134430994513,
          "88": 0.1930137431240334,
          "89": 0.0903076398711079,
          "90": 0.1277324153899132,
          "91": 0.2117861691249314,
          "92": 0.24205082255890645,
          "93": -0.002926425668687279,
          "94": -0.16134192665760877,
          "95": 0.09730312943134033,
          "96": 0.06527412214531049,
          "97": 0.03404433753459833,
          "98": 0.051746823568615964,
          "99": 0.09925384663665675,
          "100": -0.26445486834207776,
          "101": -0.14057467943253243,
          "102": -0.1558754681338075,
          "103": -0.19690206156786969,
          "104": -0.27106670806030103,
          "105": -0.1808505772122328,
          "106": -0.09873857354891148,
          "107": -0.32704061338459156,
          "108": -0.12693400288233997,
          "109": -0.09923830394681855,
          "110": -0.041794652712247374,
          "111": -0.0730460810563788,
          "112": -0.08624381069210413,
          "113": -0.32832516237854964,
          "114": -0.26099778324457285,
          "115": -0.009597011534857152,
          "116": -0.14539310650043905,
          "117": -0.18720308861089466,
          "118": -0.13703981599094175,
          "119": -0.10479518303764691,
          "120": 0.18570201795154584,
          "121": 0.04090373779666105,
          "122": 0.16417345867077188,
          "123": -0.01926284026215458,
          "124": -0.009610319399980284,
          "125": 0.13031791333567241,
          "126": -0.06290463159060605,
          "127": -0.0032184258239479654,
          "128": -0.10077819752625959,
          "129": -0.0557759555216048,
          "130": 0.17769814828131944,
          "131": -0.1388571526850657,
          "132": 0.007659450437758052,
          "133": -0.11461267387980266,
          "134": -0.09436077022182984,
          "135": -0.23212004648569104,
          "136": 0.13801162067956885,
          "137": 0.08597014489684347,
          "138": 0.10466504721923074,
          "139": -0.08415929603376134,
          "140": -0.030598575959309426,
          "141": 0.10120590028135512,
          "142": 0.0732325517930435,
          "143": 0.184938472999793,
          "144": 0.07808090346416573,
          "145": -0.07990293360899715,
          "146": -0.3034200899672959,
          "147": -0.2620751389283593,
          "148": -0.2596041224765502,
          "149": -0.032854612121558914,
          "150": -0.22918823787161752,
          "151": -0.06948727102189657,
          "152": -0.19030107408474334,
          "153": -0.22319131849914473,
          "154": 0.07045808615555672,
          "155": 0.03659626430982067,
          "156": 0.18847371556174358,
          "157": 0.0612880546355938,
          "158": -0.006700843896605286,
          "159": 0.26826231829200303,
          "160": 0.12477085894408531,
          "161": -0.11181487895903591,
          "162": -0.028663289823192634,
          "163": -0.06711494065371826,
          "164": 0.15341307834018786,
          "165": -0.03717091924893306,
          "166": 0.14642523831127835,
          "167": 0.14502435462936336,
          "168": -0.1662759579758458,
          "169": 0.07320706513086467,
          "170": -0.032480555177856175,
          "171": -0.22533045295934834,
          "172": 0.007896208114449178,
          "173": 0.04625513402099157,
          "174": 0.105227577813509,
          "175": 0.06646170148241087,
          "176": -0.26951624475406133,
          "177": -0.038216843585086334,
          "178": 0.02382812750600338,
          "179": -0.12826152425633996,
          "180": -0.2408710291854976,
          "181": -0.193621764889601,
          "182": -0.2021638839222402,
          "183": 0.1366840730008179,
          "184": -0.05299923145537273,
          "185": -0.023657849503051442,
          "186": -0.023244136570324224,
          "187": 0.23003812713548888,
          "188": -0.046024299368113225,
          "189": -0.024586270889714643,
          "190": 0.2004312869342166,
          "191": 0.29735370137035105,
          "192": -0.05497746286686637,
          "193": 0.2911334262337831,
          "194": 0.07925789404866054,
          "195": 0.21568286366013098,
          "196": -0.07367635334932167,
          "197": 0.24049202859712526,
          "198": 0.10952531375477406,
          "199": 0.024793326775483782,
          "200": 0.17113872456082155,
          "201": 0.12101579100952252,
          "202": 0.030503940978004043,
          "203": -0.009477561696302208,
          "204": -0.2631502198090339,
          "205": -0.275524053591457,
          "206": -0.3260321676752424,
          "207": -0.1860000872745851,
          "208": -0.2639488741329361,
          "209": -0.20324719581387674,
          "210": 0.0936868436805273,
          "211": -0.09197562543442833,
          "212": 0.17673200478853993,
          "213": 0.07274310119544176,
          "214": 0.03783488516029337,
          "215": -0.0812244729999371,
          "216": -0.10307589003632604,
          "217": 0.020606578313932457,
          "218": 0.22583673540557944,
          "219": 0.037950250918925045,
          "220": 0.13559573908743416,
          "221": 0.24644461890493372,
          "222": 0.1442585117622815,
          "223": 0.16390811951414666,
          "224": 0.01743255113941006,
          "225": -0.02489356177765963,
          "226": 0.023791285046767658,
          "227": 0.18789346930403353,
          "228": 0.1028921563164231,
          "229": -0.010419950477676658,
          "230": 0.11889863375766362,
          "231": 0.08720695638212679,
          "232": 0.011352433364581164,
          "233": 0.11471694006372675,
          "234": 0.08582279739509037,
          "235": 0.026852307575358,
          "236": 0.03428110239327513,
          "237": -0.07125958729529185,
          "238": 0.17213783723787907,
          "239": -0.024330719189742056,
          "240": -0.20359991553667484,
          "241": 0.09531027069336365,
          "242": -0.009457860396717945,
          "243": -0.023070218710816912,
          "244": -0.16503130253447373,
          "245": -0.21088081293020378,
          "246": -0.21124772447965237,
          "247": -0.08042395728993577,
          "248": 0.05352388257279078,
          "249": -0.09342512822115968,
          "250": -0.016595639250463482,
          "251": 0.05980875139528659,
          "252": 0.07317956913202438,
          "253": -0.015616911896873437,
          "254": -0.14221213469860813,
          "255": 0.10522157867018211,
          "256": -0.1196388488654632,
          "257": 0.08387069520581288,
          "258": -0.04645342545515084,
          "259": -0.016407014051580866,
          "260": -0.07201155744811341,
          "261": -0.045611064456583666,
          "262": -0.048913002400921654,
          "263": -0.030995561561950394,
          "264": -0.11611124733963016,
          "265": 0.18154161468485427,
          "266": -0.09595684933648597,
          "267": 0.12579919133521286,
          "268": -0.017217249927688427,
          "269": 0.14428554525551637,
          "270": 0.14004021125543803,
          "271": 0.14200336424820698,
          "272": -0.09825038540006595,
          "273": -0.11319801166103105,
          "274": -0.1127849444317459,
          "275": -0.028283467667629358,
          "276": 0.1241883812591209,
          "277": -0.050130237901573074,
          "278": -0.12016284786825715,
          "279": -0.15452228238413662,
          "280": -0.16557944202331348,
          "281": -0.06802050226289033,
          "282": -0.19244080280467793,
          "283": 0.05906205909770949,
          "284": 0.06500270721604758,
          "285": -0.10010899309518194,
          "286": -0.1386410075987035,
          "287": -0.16103697787822502,
          "288": 0.06854125346270463,
          "289": -0.15550495661624356,
          "290": -0.128530583249645,
          "291": 0.06801273689194938,
          "292": 0.03552533323263735,
          "293": -0.0484597820959259,
          "294": 0.012569166807759406,
          "295": -0.09852916699894246,
          "296": 0.11465951667459359,
          "297": 0.023218955790273624,
          "298": -0.052080593967536115,
          "299": 0.0661400396027181,
          "300": -0.21563468390780963,
          "301": -0.18658456669046666,
          "302": -0.10266377239453689,
          "303": -0.24910484426404078,
          "304": -0.1512218736605488,
          "305": -0.26319459234575276,
          "306": -0.05287032933051807,
          "307": -0.06367295263279626,
          "308": 0.1128723495864441,
          "309": -0.06484059855296748,
          "310": 0.11584548894157008,
          "311": -0.006643626017617942,
          "312": -0.24539367173838159,
          "313": 0.06695117105499636,
          "314": 0.049102299671965596,
          "315": -0.18954319154900742,
          "316": -0.05382947513872966,
          "317": -0.1668137573308628,
          "318": -0.10318968559025682,
          "319": 0.08480528255204445,
          "320": 0.09820730791514852,
          "321": 0.23142692819270694,
          "322": -0.00806115772188873,
          "323": -0.0629957736520635,
          "324": 0.17442184435645325,
          "325": -0.12321663815755379,
          "326": 0.215791733030844,
          "327": 0.05500169709888558,
          "328": 0.09399291395793459,
          "329": 0.1968207027076553,
          "330": 0.1458913136852201,
          "331": -0.1386280985954831,
          "332": 0.046368702459869224,
          "333": 0.03404835440707693,
          "334": 0.19958275255206404,
          "335": 0.19721484319263902,
          "336": 0.0054835308168468735,
          "337": 0.06405064614355742,
          "338": 0.2218027978381336,
          "339": -0.04111737017012544,
          "340": 0.17261460736230583,
          "341": 0.2025578080623461,
          "342": 0.06797554734979153,
          "343": -0.04179601473512514,
          "344": -0.038387029664141745,
          "345": 0.1997341400208049,
          "346": 0.08518794479987767,
          "347": 0.11105918037599277,
          "348": -0.1010053764700989,
          "349": 0.06022499057210227,
          "350": 0.022679522446215787,
          "351": 0.25726601794632264,
          "352": -0.06148998906834328,
          "353": 0.08544085551137146,
          "354": 0.1703869489346776,
          "355": 0.18086630513437874,
          "356": 0.16862739503756102,
          "357": 0.06196947880213661,
          "358": 0.1244667458283452,
          "359": -0.016937797173683874,
          "360": -0.1798458512551096,
          "361": -0.17824909694039728,
          "362": 0.08982278876352912,
          "363": -0.012189426853130137,
          "364": 0.15564776791448984,
          "365": 0.05622183469222716,
          "366": 0.03126719348414693,
          "367": -0.1512476693493432,
          "368": -0.20516987998254818,
          "369": 0.1493184777500657,
          "370": 0.17170644748150432,
          "371": -0.15775537911511064,
          "372": 0.16504458832771668,
          "373": 0.121945409360264,
          "374": -0.07432513957190229,
          "375": 0.06701614219691628,
          "376": 0.23891556730296384,
          "377": 0.08181995766988483,
          "378": 0.06305496813284232,
          "379": 0.09384394771371408,
          "380": -0.06047207137841131,
          "381": -0.14851450864137658,
          "382": 0.1462349137615875,
          "383": -0.16058245163879878,
          "384": 0.14147556765434496,
          "385": 0.042124295583781224,
          "386": 0.15148207388495893,
          "387": 0.2660632378686615,
          "388": -0.0498942771195557,
          "389": -0.13979822479957746,
          "390": 0.08607948096788838,
          "391": -0.09076836862605528,
          "392": 0.04640163759690222,
          "393": 0.08849380839076439,
          "394": -0.2509142572714818,
          "395": 0.06103371637135756,
          "396": -0.3562301697338455,
          "397": -0.2093542295329534,
          "398": -0.00856864393287628,
          "399": -0.21570751159599827
        }
      },
      "5": {
        "bias": 0.038296727050129785,
        "weights": {
          "0": -0.20644649067350607,
          "1": -0.23804382209670696,
          "2": -0.08103883447939711,
          "3": 0.02369817446976372,
          "4": 0.056903223837745716,
          "5": 0.07075389364168642,
          "6": -0.05922330313864806,
          "7": -0.18150509614335658,
          "8": 0.125902503321189,
          "9": 0.022454025927140395,
          "10": 0.05770227508698325,
          "11": 0.004278175974084327,
          "12": 0.1300672322227438,
          "13": -0.07580005040902532,
          "14": -0.0031165292778022585,
          "15": 0.24915211098416587,
          "16": 0.037059691406620944,
          "17": 0.326168795112687,
          "18": 0.21068774316184516,
          "19": 0.3018205119360562,
          "20": 0.1463204565319607,
          "21": 0.15356590641883905,
          "22": 0.05367308051360756,
          "23": 0.2914716996132103,
          "24": 0.05331822927382483,
          "25": 0.2578560032769034,
          "26": 0.24527860874954072,
          "27": -0.06056048965851407,
          "28": 0.11092828126994496,
          "29": 0.20294882289975072,
          "30": 0.17621050851544634,
          "31": 0.21511215269395106,
          "32": 0.2226389331531962,
          "33": 0.00037809820913701933,
          "34": 0.043999384058138996,
          "35": -0.16022832464440948,
          "36": -0.20936482543098944,
          "37": 0.06884402334163771,
          "38": 0.09537770006426835,
          "39": 0.17823903071303993,
          "40": 0.024541666771812184,
          "41": -0.11034801672841012,
          "42": -0.22216068396053631,
          "43": -0.05403451244080335,
          "44": -0.24061479216726459,
          "45": -0.17860321496512432,
          "46": -0.06674427293761112,
          "47": 0.10725448392374086,
          "48": -0.06291869164869081,
          "49": 0.13501031653799594,
          "50": 0.19076199261690552,
          "51": 0.07793750233684817,
          "52": -0.14844590697633017,
          "53": -0.18180631784282836,
          "54": 0.08686404624297091,
          "55": 0.08321497407478953,
          "56": 0.0068639526098504735,
          "57": -0.13587496227881127,
          "58": 0.1131672432721083,
          "59": -0.03197328521995821,
          "60": -0.04018711633167148,
          "61": 0.021922715061152266,
          "62": -0.17923570808921935,
          "63": 0.13077210261181554,
          "64": -0.20910546029422347,
          "65": 0.09228932262164383,
          "66": -0.14325994701723446,
          "67": -0.026578197558938987,
          "68": -0.22853769080317185,
          "69": 0.14134611872855216,
          "70": -0.23239398551144852,
          "71": 0.026835708545786947,
          "72": -0.1433578484835331,
          "73": 0.1681529280034056,
          "74": 0.027684850242130386,
          "75": 0.0040193751615784905,
          "76": -0.09634909932147137,
          "77": 0.012736924427784008,
          "78": -0.07272167439628327,
          "79": -0.12534933640469842,
          "80": 0.10812414213203879,
          "81": -0.3034108930764065,
          "82": -0.21155133929290615,
          "83": -0.1654666297067079,
          "84": -0.2909793650934874,
          "85": -0.10836660059890223,
          "86": -0.05063925933672658,
          "87": 0.019453600179156743,
          "88": -0.15499350451367983,
          "89": -0.14686149010356012,
          "90": -0.1263828687090883,
          "91": -0.006842786752587118,
          "92": -0.31427219947016033,
          "93": -0.1912655868248647,
          "94": 0.006375748702797561,
          "95": 0.018414853613425833,
          "96": -0.31965507039256064,
          "97": -0.32674257473781576,
          "98": 0.031420225706162284,
          "99": -0.1972212560393876,
          "100": 0.04542790533956566,
          "101": -0.044535044670534735,
          "102": -0.17242221100051106,
          "103": 0.008670485863379054,
          "104": -0.05456749581470816,
          "105": -0.24105651008265389,
          "106": -0.08662869314806802,
          "107": -0.11259976380089053,
          "108": -0.10110713677706826,
          "109": -0.06888492336478944,
          "110": -0.1526875495376814,
          "111": -0.023866713563379452,
          "112": -0.19777067763512995,
          "113": -0.014079395878331695,
          "114": 0.13109527502102236,
          "115": -0.10185455029350828,
          "116": 0.009546675402894004,
          "117": 0.13354036940008504,
          "118": 0.05395204758551008,
          "119": 0.07068960448240892,
          "120": -0.14938122751435745,
          "121": -0.10077721767562095,
          "122": 0.12343319878222883,
          "123": 0.16510536907631562,
          "124": 0.14045580347624875,
          "125": -0.09959640871117585,
          "126": -0.2247788315293032,
          "127": 0.12529139133968373,
          "128": -0.06985914638225497,
          "129": -0.0011755106796257206,
          "130": -0.2142678652320907,
          "131": 0.0007246725137024763,
          "132": -0.14401912606305298,
          "133": 0.07861096063678506,
          "134": 0.12247003348867568,
          "135": 0.05979341209039632,
          "136": -0.003511250185189258,
          "137": -0.1288600720113629,
          "138": 0.018300186506280732,
          "139": -0.16104810997859118,
          "140": 0.15047462693048946,
          "141": -0.07322580408806499,
          "142": -0.18283352155090252,
          "143": 0.1948044787216602,
          "144": -0.07929432994296626,
          "145": 0.2130981085025145,
          "146": 0.08995194671211791,
          "147": -0.13901014273112133,
          "148": 0.004432617301609401,
          "149": -0.10948925667996988,
          "150": -0.12391341637111115,
          "151": 0.11256007817927319,
          "152": 0.04407901622237682,
          "153": 0.07840896681798304,
          "154": -0.19254146168036404,
          "155": 0.016237644636858832,
          "156": 0.047013649894468976,
          "157": 0.14347770838997312,
          "158": -0.07979950405376596,
          "159": 0.0583626228874881,
          "160": 0.06796047512648871,
          "161": -0.09070230583766978,
          "162": 0.2572729099227649,
          "163": 0.00969470874481846,
          "164": 0.03985932968496421,
          "165": 0.15373326024993125,
          "166": 0.22340665819192496,
          "167": 0.21928664510214152,
          "168": 0.06161196262492256,
          "169": -0.02840309493041525,
          "170": -0.06429944515907882,
          "171": 0.25420947522731807,
          "172": 0.30201184987993607,
          "173": 0.27075978928009714,
          "174": 0.09714355842534535,
          "175": -0.06108011912727915,
          "176": 0.27224373432229887,
          "177": -0.025889204230525396,
          "178": 0.2210367723018568,
          "179": 0.1776621082020705,
          "180": 0.2014153172687337,
          "181": 0.2296824654886076,
          "182": -0.14118920673038615,
          "183": 0.02195065960091096,
          "184": 0.19808968434137283,
          "185": -0.04250242422613025,
          "186": 0.1693134158689772,
          "187": 0.1588139846352257,
          "188": 0.05124155171007807,
          "189": 0.033727477236505106,
          "190": 0.09312305735070174,
          "191": 0.05525273792455449,
          "192": 0.11572306218199567,
          "193": 0.09237336050427297,
          "194": -0.16567100260966916,
          "195": 0.09973498555265188,
          "196": -0.06609753016567976,
          "197": 0.04399636812891203,
          "198": -0.14719511223037374,
          "199": -0.059674548198063504,
          "200": 0.004048312855402423,
          "201": -0.04176069173424465,
          "202": 0.1779208294867115,
          "203": 0.05075296686631445,
          "204": -0.009841579131775998,
          "205": -0.024161695696805038,
          "206": 0.15482502290334105,
          "207": 0.16763645717519376,
          "208": -0.07322884157770453,
          "209": 0.1730152711750276,
          "210": 0.17628237303633437,
          "211": -0.006628827327855188,
          "212": -0.07920595497929891,
          "213": -0.06364694460130528,
          "214": 0.05256727534953407,
          "215": 0.20890580862232122,
          "216": 0.06931517386172026,
          "217": 0.061557675266135606,
          "218": -0.14132543368944445,
          "219": 0.1065178146624371,
          "220": -0.08949534164669287,
          "221": 0.11464570367422768,
          "222": 0.00440896574251135,
          "223": 0.21227055303036096,
          "224": 0.2167223794836207,
          "225": 0.04089327490266961,
          "226": 0.16940826102202763,
          "227": -0.15353841238347724,
          "228": 0.1602572607364511,
          "229": -0.0008717642735007337,
          "230": -0.0844810661171531,
          "231": -0.1564337435722043,
          "232": 0.13138455159249854,
          "233": -0.03632385766625562,
          "234": 0.017699353213444607,
          "235": -0.20099708676345882,
          "236": -0.11549642836815684,
          "237": -0.14378343693487258,
          "238": -0.16802139386579806,
          "239": 0.02137661445656485,
          "240": -0.0005950562501526213,
          "241": -0.18001566360295734,
          "242": 0.08026731015250806,
          "243": 0.07440386061935725,
          "244": -0.003851465136629547,
          "245": 0.1501778441266906,
          "246": -0.12864377546276548,
          "247": -0.007611437785142676,
          "248": -0.0041224703601548335,
          "249": -0.22561570557450078,
          "250": 0.09801847421465693,
          "251": -0.13468447943994383,
          "252": 0.07717721605194922,
          "253": -0.1668784591440173,
          "254": -0.038048006999693705,
          "255": 0.01248978815562368,
          "256": 0.16518478031127526,
          "257": -0.039885486366374116,
          "258": -0.08425967604437093,
          "259": 0.10483863400407868,
          "260": -0.2198599212183478,
          "261": -0.32894831494297455,
          "262": -0.2292266444020476,
          "263": -0.3416104996176155,
          "264": 0.024017146269619132,
          "265": 0.028487026529105272,
          "266": 0.05354419970946505,
          "267": -0.008987907193945018,
          "268": -0.16379947452990942,
          "269": 0.03406601036011334,
          "270": -0.23977999103910957,
          "271": 0.12004639756467865,
          "272": 0.04855758960877169,
          "273": 0.0901118420133491,
          "274": -0.092444692820258,
          "275": 0.039374454769731566,
          "276": 0.24670222345921,
          "277": -0.1287491200070414,
          "278": 0.2593850186631385,
          "279": -0.050774616896900576,
          "280": 0.13033253354742572,
          "281": 0.06913162051211554,
          "282": 0.14210701814417948,
          "283": 0.004634809285796729,
          "284": 0.06998628417554856,
          "285": -0.09337978601098416,
          "286": -0.23588131337772542,
          "287": 0.09114629419675227,
          "288": -0.14665967468313126,
          "289": -0.18396520424129967,
          "290": 0.17837825161807058,
          "291": 0.15418045904519057,
          "292": 0.08524990134187627,
          "293": -0.09287291812153863,
          "294": -0.11208265105719627,
          "295": -0.15394063745082298,
          "296": -0.03360774065990796,
          "297": 0.07694995673088333,
          "298": 0.20426775213090925,
          "299": -0.11856661188664627,
          "300": 0.1370390050557743,
          "301": 0.09471131188059483,
          "302": 0.04748988860530059,
          "303": 0.1070422726853964,
          "304": 0.014579246811806602,
          "305": -0.23322434692778918,
          "306": 0.014320159056555329,
          "307": -0.1895850356090674,
          "308": -0.26434813755458886,
          "309": -0.07916632225085014,
          "310": -0.1519566074061748,
          "311": -0.25699595368790284,
          "312": 0.05851550950025034,
          "313": -0.019221463205015537,
          "314": -0.23809633566611174,
          "315": -0.09799663444951474,
          "316": -0.20221678233743243,
          "317": 0.1375207810953223,
          "318": -0.19930357757701062,
          "319": -0.026805717375877895,
          "320": 0.056689647444742516,
          "321": 0.032040971134495486,
          "322": -0.06262099242621474,
          "323": 0.16654674304438408,
          "324": -0.18274321848002065,
          "325": -0.10656487118437469,
          "326": 0.1290195344169662,
          "327": -0.11129580002117592,
          "328": -0.2236206633703622,
          "329": 0.11074465116192092,
          "330": 0.12398798439594096,
          "331": -0.018532656306121987,
          "332": -0.1986953403410492,
          "333": -0.09145291112877137,
          "334": -0.10030483873573963,
          "335": -0.11554503936206312,
          "336": -0.15506547964831058,
          "337": -0.10339529431094086,
          "338": -0.02729782104296724,
          "339": -0.15588728383994424,
          "340": 0.013378354793450693,
          "341": -0.27089238696623136,
          "342": 0.016515540104883288,
          "343": -0.11531711498391901,
          "344": -0.08168772850088572,
          "345": -0.17828116634712554,
          "346": -0.263379402020472,
          "347": -0.1675682385463431,
          "348": -0.01913557436227649,
          "349": -0.06344924849521955,
          "350": -0.10858703694104521,
          "351": -0.28117968063940185,
          "352": 0.06493515623856957,
          "353": -0.13360425510487178,
          "354": -0.2238186653387317,
          "355": -0.19353494199040464,
          "356": -0.0009384848663451501,
          "357": 0.0015987092918611906,
          "358": 0.03630574185402242,
          "359": -0.2432815377369198,
          "360": -0.2519090536689974,
          "361": -0.12378883655417983,
          "362": -0.11659740804814654,
          "363": -0.18414480432837482,
          "364": -0.21000426019676358,
          "365": -0.24428808375522706,
          "366": -0.03932529911216657,
          "367": -0.030848034167051935,
          "368": 0.07444718502393918,
          "369": -0.1603369210561923,
          "370": 0.08158514494747045,
          "371": -0.18121521289980858,
          "372": -0.2678802485419003,
          "373": 0.060632953275206174,
          "374": 0.003135130086306747,
          "375": -0.09843583192519306,
          "376": -0.11676111123929954,
          "377": 0.005322372501980925,
          "378": 0.029007245187309117,
          "379": -0.0657382683053537,
          "380": -0.04181320804715593,
          "381": -0.19436363784432964,
          "382": 0.0794895969424838,
          "383": -0.26483007734845077,
          "384": 0.09285385309329648,
          "385": -0.22333120998190117,
          "386": 0.071613647610604,
          "387": 0.04555209564258179,
          "388": -0.18386920837066645,
          "389": -0.09374827993174623,
          "390": -0.20716364773302123,
          "391": 0.12274317055910985,
          "392": -0.08408949977322976,
          "393": -0.1004580237416354,
          "394": -0.026374030812575278,
          "395": -0.10151044977497456,
          "396": 0.10813711305999509,
          "397": -0.18625064595514404,
          "398": 0.07454113654841478,
          "399": 0.00769088849208144
        }
      },
      "6": {
        "bias": 0.07899046263490173,
        "weights": {
          "0": -0.09412972060117773,
          "1": 0.22111086370963115,
          "2": -0.054655359488555884,
          "3": 0.0833415621627409,
          "4": 0.14535676208988219,
          "5": 0.13253699658825666,
          "6": 0.0649564451419019,
          "7": -0.040484990780077855,
          "8": 0.02541490709546674,
          "9": 0.11532856267242994,
          "10": -0.013148027708355466,
          "11": 0.17635204292106446,
          "12": -0.1439908624690816,
          "13": -0.0500467693354393,
          "14": -0.10508873484245339,
          "15": 0.166128647477995,
          "16": 0.17260749573183926,
          "17": 0.2601613551903241,
          "18": 0.18626932303977203,
          "19": 0.21477777643862925,
          "20": 0.11260344057272319,
          "21": 0.12886336174341378,
          "22": 0.09009949949984808,
          "23": -0.11129669946639444,
          "24": 0.05297266640034275,
          "25": -0.06062134362647573,
          "26": -0.0014142342394745022,
          "27": 0.12308681307141141,
          "28": -0.13353594285596956,
          "29": -0.20867566261105186,
